{
  "sizes": [784, 150, 10],
  "layers": [
    [
      {},
      {},
      {},
      {},
      {},
      {},
      {},
      {},
      {},
      {},
      {},
      {},
      {},
      {},
      {},
      {},
      {},
      {},
      {},
      {},
      {},
      {},
      {},
      {},
      {},
      {},
      {},
      {},
      {},
      {},
      {},
      {},
      {},
      {},
      {},
      {},
      {},
      {},
      {},
      {},
      {},
      {},
      {},
      {},
      {},
      {},
      {},
      {},
      {},
      {},
      {},
      {},
      {},
      {},
      {},
      {},
      {},
      {},
      {},
      {},
      {},
      {},
      {},
      {},
      {},
      {},
      {},
      {},
      {},
      {},
      {},
      {},
      {},
      {},
      {},
      {},
      {},
      {},
      {},
      {},
      {},
      {},
      {},
      {},
      {},
      {},
      {},
      {},
      {},
      {},
      {},
      {},
      {},
      {},
      {},
      {},
      {},
      {},
      {},
      {},
      {},
      {},
      {},
      {},
      {},
      {},
      {},
      {},
      {},
      {},
      {},
      {},
      {},
      {},
      {},
      {},
      {},
      {},
      {},
      {},
      {},
      {},
      {},
      {},
      {},
      {},
      {},
      {},
      {},
      {},
      {},
      {},
      {},
      {},
      {},
      {},
      {},
      {},
      {},
      {},
      {},
      {},
      {},
      {},
      {},
      {},
      {},
      {},
      {},
      {},
      {},
      {},
      {},
      {},
      {},
      {},
      {},
      {},
      {},
      {},
      {},
      {},
      {},
      {},
      {},
      {},
      {},
      {},
      {},
      {},
      {},
      {},
      {},
      {},
      {},
      {},
      {},
      {},
      {},
      {},
      {},
      {},
      {},
      {},
      {},
      {},
      {},
      {},
      {},
      {},
      {},
      {},
      {},
      {},
      {},
      {},
      {},
      {},
      {},
      {},
      {},
      {},
      {},
      {},
      {},
      {},
      {},
      {},
      {},
      {},
      {},
      {},
      {},
      {},
      {},
      {},
      {},
      {},
      {},
      {},
      {},
      {},
      {},
      {},
      {},
      {},
      {},
      {},
      {},
      {},
      {},
      {},
      {},
      {},
      {},
      {},
      {},
      {},
      {},
      {},
      {},
      {},
      {},
      {},
      {},
      {},
      {},
      {},
      {},
      {},
      {},
      {},
      {},
      {},
      {},
      {},
      {},
      {},
      {},
      {},
      {},
      {},
      {},
      {},
      {},
      {},
      {},
      {},
      {},
      {},
      {},
      {},
      {},
      {},
      {},
      {},
      {},
      {},
      {},
      {},
      {},
      {},
      {},
      {},
      {},
      {},
      {},
      {},
      {},
      {},
      {},
      {},
      {},
      {},
      {},
      {},
      {},
      {},
      {},
      {},
      {},
      {},
      {},
      {},
      {},
      {},
      {},
      {},
      {},
      {},
      {},
      {},
      {},
      {},
      {},
      {},
      {},
      {},
      {},
      {},
      {},
      {},
      {},
      {},
      {},
      {},
      {},
      {},
      {},
      {},
      {},
      {},
      {},
      {},
      {},
      {},
      {},
      {},
      {},
      {},
      {},
      {},
      {},
      {},
      {},
      {},
      {},
      {},
      {},
      {},
      {},
      {},
      {},
      {},
      {},
      {},
      {},
      {},
      {},
      {},
      {},
      {},
      {},
      {},
      {},
      {},
      {},
      {},
      {},
      {},
      {},
      {},
      {},
      {},
      {},
      {},
      {},
      {},
      {},
      {},
      {},
      {},
      {},
      {},
      {},
      {},
      {},
      {},
      {},
      {},
      {},
      {},
      {},
      {},
      {},
      {},
      {},
      {},
      {},
      {},
      {},
      {},
      {},
      {},
      {},
      {},
      {},
      {},
      {},
      {},
      {},
      {},
      {},
      {},
      {},
      {},
      {},
      {},
      {},
      {},
      {},
      {},
      {},
      {},
      {},
      {},
      {},
      {},
      {},
      {},
      {},
      {},
      {},
      {},
      {},
      {},
      {},
      {},
      {},
      {},
      {},
      {},
      {},
      {},
      {},
      {},
      {},
      {},
      {},
      {},
      {},
      {},
      {},
      {},
      {},
      {},
      {},
      {},
      {},
      {},
      {},
      {},
      {},
      {},
      {},
      {},
      {},
      {},
      {},
      {},
      {},
      {},
      {},
      {},
      {},
      {},
      {},
      {},
      {},
      {},
      {},
      {},
      {},
      {},
      {},
      {},
      {},
      {},
      {},
      {},
      {},
      {},
      {},
      {},
      {},
      {},
      {},
      {},
      {},
      {},
      {},
      {},
      {},
      {},
      {},
      {},
      {},
      {},
      {},
      {},
      {},
      {},
      {},
      {},
      {},
      {},
      {},
      {},
      {},
      {},
      {},
      {},
      {},
      {},
      {},
      {},
      {},
      {},
      {},
      {},
      {},
      {},
      {},
      {},
      {},
      {},
      {},
      {},
      {},
      {},
      {},
      {},
      {},
      {},
      {},
      {},
      {},
      {},
      {},
      {},
      {},
      {},
      {},
      {},
      {},
      {},
      {},
      {},
      {},
      {},
      {},
      {},
      {},
      {},
      {},
      {},
      {},
      {},
      {},
      {},
      {},
      {},
      {},
      {},
      {},
      {},
      {},
      {},
      {},
      {},
      {},
      {},
      {},
      {},
      {},
      {},
      {},
      {},
      {},
      {},
      {},
      {},
      {},
      {},
      {},
      {},
      {},
      {},
      {},
      {},
      {},
      {},
      {},
      {},
      {},
      {},
      {},
      {},
      {},
      {},
      {},
      {},
      {},
      {},
      {},
      {},
      {},
      {},
      {},
      {},
      {},
      {},
      {},
      {},
      {},
      {},
      {},
      {},
      {},
      {},
      {},
      {},
      {},
      {},
      {},
      {},
      {},
      {},
      {},
      {},
      {},
      {},
      {},
      {},
      {},
      {},
      {},
      {},
      {},
      {},
      {},
      {},
      {},
      {},
      {},
      {},
      {},
      {},
      {},
      {},
      {},
      {},
      {},
      {},
      {},
      {},
      {},
      {},
      {},
      {},
      {},
      {},
      {},
      {},
      {},
      {},
      {},
      {},
      {},
      {},
      {},
      {},
      {},
      {},
      {},
      {},
      {},
      {},
      {},
      {},
      {},
      {},
      {},
      {},
      {},
      {},
      {},
      {},
      {},
      {},
      {},
      {},
      {},
      {},
      {},
      {},
      {},
      {},
      {},
      {},
      {},
      {},
      {},
      {},
      {},
      {},
      {},
      {},
      {},
      {},
      {},
      {},
      {},
      {},
      {},
      {},
      {},
      {},
      {},
      {},
      {},
      {},
      {},
      {},
      {},
      {},
      {},
      {},
      {},
      {},
      {},
      {},
      {},
      {},
      {},
      {},
      {},
      {},
      {},
      {},
      {},
      {},
      {},
      {},
      {},
      {},
      {},
      {},
      {},
      {},
      {},
      {},
      {},
      {},
      {},
      {},
      {},
      {},
      {},
      {},
      {},
      {},
      {},
      {},
      {},
      {},
      {},
      {},
      {},
      {},
      {},
      {},
      {},
      {}
    ],
    [
      {
        "bias": -0.008385278284549713,
        "weights": [
          0.12627816200256348,
          0.03252381458878517,
          -0.18402978777885437,
          -0.023354439064860344,
          0.046796366572380066,
          -0.1776934713125229,
          0.18097350001335144,
          -0.17619924247264862,
          0.0867096558213234,
          -0.04000158980488777,
          -0.04164692386984825,
          0.17228898406028748,
          0.03546762838959694,
          0.07579363882541656,
          -0.008176595903933048,
          0.1419147551059723,
          -0.09639297425746918,
          -0.18082810938358307,
          0.12280585616827011,
          0.12126026302576065,
          0.0776977390050888,
          0.0545465424656868,
          -0.08881529420614243,
          -0.1807982474565506,
          0.10872085392475128,
          -0.1603498011827469,
          -0.19658952951431274,
          0.04231403023004532,
          -0.1710880547761917,
          0.16940376162528992,
          0.07503268122673035,
          -0.0008862906834110618,
          0.17211471498012543,
          -0.05805755779147148,
          0.002548132324591279,
          0.028897728770971298,
          0.11684178560972214,
          0.07936219871044159,
          0.19912134110927582,
          0.08648893982172012,
          -0.023993434384465218,
          0.15410929918289185,
          -0.16470415890216827,
          0.18119731545448303,
          -0.09483881294727325,
          -0.16225917637348175,
          0.18612664937973022,
          -0.05784360319375992,
          -0.07017751038074493,
          0.007443215698003769,
          -0.1700378954410553,
          -0.18281413614749908,
          0.15080371499061584,
          0.18827782571315765,
          -0.13171276450157166,
          -0.07171809673309326,
          0.08914349973201752,
          0.08886729925870895,
          0.05172494053840637,
          0.06616419553756714,
          -0.016913199797272682,
          0.14197473227977753,
          0.19945818185806274,
          -0.027252469211816788,
          -0.17012198269367218,
          0.1327088624238968,
          0.14849556982517242,
          0.11289040744304657,
          -0.18953478336334229,
          0.10028006136417389,
          0.07841254025697708,
          -0.18849098682403564,
          0.02835419774055481,
          0.14185978472232819,
          0.050554051995277405,
          0.13295753300189972,
          -0.03995607793331146,
          0.0985889732837677,
          -0.10640512406826019,
          -0.1692543625831604,
          -0.10950760543346405,
          0.04581988975405693,
          -0.05038013681769371,
          -0.13424406945705414,
          0.06092318519949913,
          -0.17825810611248016,
          0.025294220075011253,
          0.027287056669592857,
          -0.03308628126978874,
          -0.10235858708620071,
          -0.15285274386405945,
          -0.13474047183990479,
          -0.18570949137210846,
          -0.0025014509446918964,
          0.10425330698490143,
          0.13795937597751617,
          -0.01759941875934601,
          -0.11014620214700699,
          0.16714845597743988,
          0.031041918322443962,
          0.11795008927583694,
          -0.09833233058452606,
          0.14336270093917847,
          -0.09746581315994263,
          0.0034551946446299553,
          -0.03869783878326416,
          0.17456217110157013,
          0.10963200777769089,
          0.06861494481563568,
          0.11480706185102463,
          -0.01850385218858719,
          0.09254465252161026,
          0.18673521280288696,
          0.17975138127803802,
          -0.05231345444917679,
          -0.0295632965862751,
          0.07928591221570969,
          0.07826028764247894,
          -0.09789250791072845,
          -0.14731968939304352,
          -0.19231867790222168,
          -0.07996951043605804,
          -0.07777827978134155,
          -0.10719498246908188,
          0.13370181620121002,
          -0.03885207325220108,
          -0.1023651584982872,
          -0.09193021059036255,
          -0.1226920560002327,
          0.08221730589866638,
          0.02653421089053154,
          0.09740275889635086,
          -0.06016857177019119,
          0.026822518557310104,
          -0.17285725474357605,
          -0.12725314497947693,
          0.08311004191637039,
          0.08903466165065765,
          -0.011021831072866917,
          0.18872500956058502,
          -0.08168469369411469,
          0.026826245710253716,
          0.07933704555034637,
          -0.11826809495687485,
          0.08948148041963577,
          -0.007169333286583424,
          0.0814419612288475,
          0.08754441887140274,
          -0.09602601081132889,
          0.12777253985404968,
          -0.28064191341400146,
          -0.024274801835417747,
          -0.057942282408475876,
          0.21514403820037842,
          -0.051893338561058044,
          -0.10098861902952194,
          -0.07033150643110275,
          0.19415727257728577,
          -0.1270153820514679,
          -0.0644659772515297,
          0.22443845868110657,
          -0.021648144349455833,
          -0.09926112741231918,
          0.09884551167488098,
          -0.12323077023029327,
          0.12253948301076889,
          -0.029999306425452232,
          -0.18577300012111664,
          0.10997546464204788,
          0.027505796402692795,
          0.09862618148326874,
          0.18993191421031952,
          0.17795255780220032,
          -0.18657653033733368,
          -0.16256967186927795,
          -0.07966112345457077,
          -0.16718344390392303,
          -0.10973376035690308,
          0.13866785168647766,
          -0.018098320811986923,
          0.21032114326953888,
          0.13160565495491028,
          0.038762908428907394,
          0.01990528777241707,
          -0.1555221527814865,
          -0.11905806511640549,
          0.2242869883775711,
          0.20580247044563293,
          0.05478788539767265,
          -0.1551087498664856,
          0.0022297303657978773,
          -0.10055219382047653,
          -0.10198237746953964,
          0.11660488694906235,
          -0.1663864552974701,
          -0.09749529510736465,
          -0.004322515334933996,
          -0.05281295254826546,
          0.05293253809213638,
          0.05675545707345009,
          -0.06698363274335861,
          -0.05156668648123741,
          0.008632222190499306,
          0.12127400189638138,
          0.09650412946939468,
          -0.1530371457338333,
          0.018362591043114662,
          -0.052900977432727814,
          -0.02589958906173706,
          0.025016916915774345,
          0.09372047334909439,
          0.07296217232942581,
          0.14975149929523468,
          -0.18148569762706757,
          0.12116777896881104,
          -0.1146344318985939,
          0.20688675343990326,
          0.0008792828884907067,
          0.0678287073969841,
          -0.009048856794834137,
          0.1247251108288765,
          0.04006051644682884,
          -0.011932983063161373,
          0.04706507921218872,
          0.05795876309275627,
          0.15403403341770172,
          0.19768333435058594,
          -0.021689776331186295,
          -0.19631779193878174,
          -0.14079710841178894,
          -0.12528526782989502,
          0.0766320526599884,
          0.01514518167823553,
          0.10363589972257614,
          -0.09451527893543243,
          0.06419628113508224,
          -0.030856145545840263,
          -0.05939444154500961,
          -0.14025811851024628,
          0.09571796655654907,
          0.0915895402431488,
          -0.04400496929883957,
          0.028999708592891693,
          0.025927482172846794,
          0.2965604066848755,
          -0.013923544436693192,
          0.11032291501760483,
          0.06712287664413452,
          -0.012888227589428425,
          0.025067994371056557,
          -0.09418023377656937,
          -0.0878865048289299,
          -0.1577235609292984,
          0.013673285022377968,
          0.07085967063903809,
          -0.04946671426296234,
          -0.07404263317584991,
          0.1493869125843048,
          0.19786623120307922,
          -0.11213330924510956,
          -0.14213085174560547,
          -0.0980062186717987,
          0.16689005494117737,
          0.053302839398384094,
          0.08157923817634583,
          -0.05540730059146881,
          0.21513685584068298,
          0.002237752079963684,
          -0.1771908402442932,
          0.09635203331708908,
          -0.0893566682934761,
          -0.03118927963078022,
          -0.11853140592575073,
          0.02124851755797863,
          0.1698828488588333,
          0.10447347164154053,
          0.05680841952562332,
          0.03259796276688576,
          -0.03222523257136345,
          -0.19387060403823853,
          -0.0800999104976654,
          0.02407965064048767,
          -0.10910298675298691,
          -0.19397702813148499,
          -0.11700187623500824,
          0.15036237239837646,
          0.04054311290383339,
          0.1340278536081314,
          -0.03369506821036339,
          0.15678246319293976,
          0.23812182247638702,
          -0.0042516617104411125,
          0.19665898382663727,
          0.2156984508037567,
          0.0994853749871254,
          0.033942509442567825,
          0.2234880030155182,
          0.16067318618297577,
          0.19634924829006195,
          0.12255437672138214,
          -0.02941020578145981,
          0.10955649614334106,
          0.1352963000535965,
          0.15747185051441193,
          0.1589246690273285,
          -0.06980535387992859,
          -0.10433395951986313,
          0.060821905732154846,
          -0.18938666582107544,
          -0.02612491510808468,
          0.1332387775182724,
          -0.06130188703536987,
          0.16519784927368164,
          -0.1388845145702362,
          0.20988829433918,
          -0.14949750900268555,
          0.2201564460992813,
          -0.17043213546276093,
          -0.0357157327234745,
          0.09947898983955383,
          -0.16702894866466522,
          0.11332114040851593,
          0.07225249707698822,
          0.23181988298892975,
          -0.026489410549402237,
          -0.14494436979293823,
          -0.005466613452881575,
          -0.07114247977733612,
          -0.08494877070188522,
          0.12469039112329483,
          0.018334345892071724,
          -0.1312008649110794,
          0.15425509214401245,
          -0.1014806404709816,
          -0.06451219320297241,
          -0.16562120616436005,
          0.06721620261669159,
          -0.17818380892276764,
          -0.09168935567140579,
          -0.17247647047042847,
          0.18776525557041168,
          -0.06245313584804535,
          0.1776300072669983,
          0.07621442526578903,
          0.006218204274773598,
          -0.1628870815038681,
          -0.270463764667511,
          -0.09841766953468323,
          -0.038278669118881226,
          0.0533122792840004,
          0.043783146888017654,
          -0.01838310807943344,
          -0.22863297164440155,
          0.01715676486492157,
          0.04389888048171997,
          0.1273525357246399,
          -0.05653724446892738,
          -0.04726434499025345,
          -0.18394003808498383,
          0.19809305667877197,
          0.004019346088171005,
          -0.1851922869682312,
          0.1377423107624054,
          -0.041290055960416794,
          -0.12790609896183014,
          -0.1171974390745163,
          -0.09531281888484955,
          0.1905999332666397,
          -0.16546319425106049,
          -0.00791047140955925,
          -0.045164525508880615,
          0.1216004490852356,
          0.15145759284496307,
          -0.04092617332935333,
          -0.10056910663843155,
          0.023869508877396584,
          -0.10336309671401978,
          -0.015628689900040627,
          0.2858414351940155,
          0.17110812664031982,
          -0.18353582918643951,
          0.019239647313952446,
          0.10953640192747116,
          -0.14897029101848602,
          -0.08280322700738907,
          -0.19624397158622742,
          0.10750428587198257,
          -0.20246313512325287,
          -0.15558503568172455,
          0.15858228504657745,
          -0.18600411713123322,
          -0.1058029755949974,
          -0.17085593938827515,
          -0.18546141684055328,
          -0.17612871527671814,
          -0.1052679792046547,
          0.038370802998542786,
          0.030384857207536697,
          -0.036805279552936554,
          -0.029590502381324768,
          -0.10727547109127045,
          -0.07080546021461487,
          0.020143680274486542,
          -0.028400776907801628,
          0.14724531769752502,
          0.13174031674861908,
          -0.12797078490257263,
          0.008989354595541954,
          0.15148231387138367,
          -0.2607583999633789,
          -0.18693093955516815,
          -0.1443607360124588,
          -0.1269785314798355,
          -0.021702207624912262,
          -0.09494201093912125,
          0.08689896762371063,
          0.054690659046173096,
          0.16253578662872314,
          0.1283784806728363,
          0.07430661469697952,
          0.13432449102401733,
          0.12640145421028137,
          -0.054385025054216385,
          0.17847470939159393,
          -0.14606979489326477,
          0.009575358591973782,
          0.026041071861982346,
          -0.1284269392490387,
          -0.26204589009284973,
          -0.08607172966003418,
          -0.0689384937286377,
          -0.018864085897803307,
          -0.12112405151128769,
          -0.00988977774977684,
          0.04888175427913666,
          -0.11036007851362228,
          -0.2869933843612671,
          -0.24487915635108948,
          -0.0637662336230278,
          -0.10369543731212616,
          -0.2305542230606079,
          0.08486472815275192,
          -0.07175343483686447,
          -0.09715252369642258,
          -0.030895929783582687,
          0.06168610230088234,
          0.0862153172492981,
          0.1426607072353363,
          0.04565910995006561,
          -0.14297254383563995,
          0.10910794883966446,
          0.028206543996930122,
          -0.026909800246357918,
          0.1233367770910263,
          -0.1268509328365326,
          -0.13315936923027039,
          -0.06936316192150116,
          -0.12432405352592468,
          0.10538386553525925,
          0.03430581092834473,
          0.08647851645946503,
          0.07737281173467636,
          0.047221340239048004,
          -0.022064078599214554,
          -0.19110436737537384,
          -0.06771759688854218,
          0.07355963438749313,
          -0.07488265633583069,
          -0.05806122347712517,
          -0.0795523002743721,
          -0.03464191034436226,
          -0.1596686840057373,
          -0.11842113733291626,
          0.14493654668331146,
          0.08395589888095856,
          0.12478283047676086,
          -0.16150367259979248,
          -0.09424635767936707,
          -0.02784467115998268,
          -0.026861228048801422,
          -0.1378328651189804,
          -0.06508395820856094,
          0.18495716154575348,
          -0.04129920154809952,
          0.0025689401663839817,
          -0.10793557018041611,
          -0.1539875566959381,
          0.18117430806159973,
          0.11204785853624344,
          0.12572349607944489,
          0.11988317966461182,
          -0.18709464371204376,
          -0.03386341780424118,
          -0.0716659352183342,
          -0.04139210656285286,
          -0.11132902652025223,
          -0.05945759266614914,
          -0.04645015671849251,
          -0.08095074445009232,
          -0.17748315632343292,
          0.04692300036549568,
          -0.014776124618947506,
          -0.07441646605730057,
          0.1888781040906906,
          -0.0028215963393449783,
          -0.14879228174686432,
          0.07093393057584763,
          0.000006439101525756996,
          0.17641478776931763,
          0.14051367342472076,
          -0.14678819477558136,
          -0.11532037705183029,
          0.2043076902627945,
          -0.13393433392047882,
          -0.08550328761339188,
          -0.03610687330365181,
          0.19502046704292297,
          0.11275357753038406,
          -0.025552142411470413,
          -0.09620668739080429,
          -0.0408422090113163,
          -0.02461375668644905,
          -0.00527105713263154,
          0.029063599184155464,
          0.20237186551094055,
          -0.08645584434270859,
          0.007471910212188959,
          -0.08808209747076035,
          -0.0791751816868782,
          0.09183511883020401,
          0.17485423386096954,
          0.062078092247247696,
          -0.10222785919904709,
          -0.04918070137500763,
          0.10974973440170288,
          -0.08612824231386185,
          -0.2056945115327835,
          -0.06210370734333992,
          0.06373891979455948,
          -0.11374516040086746,
          0.24189600348472595,
          0.13382336497306824,
          0.14866198599338531,
          -0.10702451318502426,
          -0.06602400541305542,
          -0.16957321763038635,
          0.10824768990278244,
          0.11464127153158188,
          -0.06718048453330994,
          -0.08361242711544037,
          -0.04814568907022476,
          0.08487410843372345,
          0.16827167570590973,
          0.10754289478063583,
          0.14074981212615967,
          0.16842547059059143,
          0.05639243125915527,
          0.15706680715084076,
          0.15370801091194153,
          0.07076357305049896,
          -0.13419125974178314,
          -0.18866793811321259,
          -0.013325106352567673,
          -0.030631596222519875,
          -0.18320289254188538,
          0.16952291131019592,
          -0.15154370665550232,
          -0.09198673069477081,
          0.10195695608854294,
          0.2699454724788666,
          0.14418357610702515,
          0.24822328984737396,
          0.2162078469991684,
          0.08846648782491684,
          -0.20831550657749176,
          -0.15075857937335968,
          -0.035451050847768784,
          0.002752504078671336,
          0.08690208196640015,
          -0.03350910171866417,
          -0.057911038398742676,
          -0.0391392782330513,
          -0.15404604375362396,
          -0.15613451600074768,
          0.05530599504709244,
          0.183306023478508,
          0.03113008476793766,
          -0.1427406221628189,
          -0.007304200902581215,
          0.004237836226820946,
          0.04665912315249443,
          0.05614485219120979,
          -0.07498487830162048,
          0.10535942763090134,
          -0.010601295158267021,
          0.2005448192358017,
          0.2020864337682724,
          0.02700282633304596,
          -0.11834616214036942,
          0.010492720641195774,
          -0.10147376358509064,
          0.0988570898771286,
          -0.19653746485710144,
          0.19385501742362976,
          0.020943302661180496,
          -0.04807727783918381,
          0.010025300085544586,
          -0.1286466121673584,
          -0.012130155228078365,
          -0.09344199299812317,
          0.024460138753056526,
          0.1203649491071701,
          0.029559137299656868,
          -0.07572609931230545,
          -0.18109171092510223,
          0.03456324711441994,
          -0.15303242206573486,
          -0.17582419514656067,
          -0.12280996143817902,
          0.0600338950753212,
          -0.06425607949495316,
          0.13662631809711456,
          0.02449066936969757,
          0.16166701912879944,
          -0.14713312685489655,
          -0.11460892856121063,
          -0.011738117784261703,
          -0.18928514420986176,
          0.14204458892345428,
          0.11519025266170502,
          0.008558581583201885,
          -0.16956087946891785,
          -0.1810249537229538,
          0.04079148545861244,
          -0.09989134222269058,
          0.03051622398197651,
          0.1170230507850647,
          -0.16923782229423523,
          -0.07071255147457123,
          -0.07731349021196365,
          -0.000704787322320044,
          0.047365959733724594,
          -0.030592352151870728,
          -0.0008145762258209288,
          0.05725186690688133,
          0.12764430046081543,
          0.10648787766695023,
          0.14170674979686737,
          0.031140970066189766,
          -0.19409394264221191,
          -0.04216920956969261,
          -0.05027535930275917,
          0.05457010492682457,
          0.08783341944217682,
          -0.17947426438331604,
          0.262517511844635,
          -0.03535310551524162,
          0.02270452305674553,
          0.02734258770942688,
          0.13419650495052338,
          0.10727415233850479,
          -0.13744360208511353,
          0.18465618789196014,
          -0.12190445512533188,
          0.04851821810007095,
          -0.1275005042552948,
          0.13049256801605225,
          0.06566014140844345,
          0.03479374200105667,
          0.049862273037433624,
          0.06663287431001663,
          -0.07882750034332275,
          -0.11116290837526321,
          -0.16666863858699799,
          -0.10684584826231003,
          -0.05837222933769226,
          0.18423596024513245,
          -0.18391400575637817,
          -0.02072838507592678,
          0.14234335720539093,
          0.04218234121799469,
          -0.21931420266628265,
          -0.18148142099380493,
          -0.14122271537780762,
          0.1586083322763443,
          -0.03845573216676712,
          0.06453065574169159,
          -0.09330577403306961,
          -0.010210665874183178,
          0.08585520088672638,
          -0.11968088895082474,
          -0.14776062965393066,
          0.006585697177797556,
          0.10508660227060318,
          -0.1612696796655655,
          0.035488300025463104,
          0.18469588458538055,
          0.007575363852083683,
          0.16913312673568726,
          0.03629608079791069,
          0.0040918816812336445,
          0.13571423292160034,
          -0.013503926806151867,
          -0.03104698285460472,
          -0.001539511256851256,
          0.006751998793333769,
          0.02698078192770481,
          -0.06928505748510361,
          -0.1068461462855339,
          -0.1354568600654602,
          -0.05301247537136078,
          0.09743925929069519,
          0.1648721843957901,
          -0.04496120661497116,
          -0.16192294657230377,
          0.1946713626384735,
          0.019292518496513367,
          0.06960643827915192,
          -0.07231306284666061,
          0.14784952998161316,
          0.1425739973783493,
          -0.020395265892148018,
          0.09275545924901962,
          0.032281797379255295,
          0.1358284056186676,
          -0.023921146988868713,
          -0.19619548320770264,
          0.08331450074911118,
          -0.01740337535738945,
          -0.0032920963130891323,
          0.15377368032932281,
          -0.0030276637990027666,
          -0.05454970896244049,
          0.09024526178836823,
          -0.07388687878847122,
          -0.020938431844115257,
          0.033149007707834244,
          -0.06826614588499069,
          0.08409997075796127,
          0.006292587146162987,
          0.08804744482040405,
          0.028350045904517174,
          -0.171002596616745,
          0.09038061648607254,
          -0.15608613193035126,
          0.003932983614504337,
          -0.0965944230556488,
          -0.14466343820095062,
          0.1294320970773697,
          -0.1870911866426468,
          0.09041845053434372,
          0.028095727786421776,
          -0.03933437913656235,
          0.1457149088382721,
          0.07693248242139816,
          0.14342835545539856,
          -0.07717551290988922,
          -0.016841132193803787,
          -0.02573293074965477,
          -0.042385123670101166,
          -0.10788945108652115,
          0.04272972419857979,
          -0.08453651517629623,
          -0.02615850605070591,
          0.03022322803735733,
          -0.10591808706521988,
          0.17430606484413147,
          0.12394474446773529,
          -0.06141422688961029,
          -0.17847375571727753,
          -0.030109144747257233,
          -0.1509118378162384,
          -0.04234094172716141,
          -0.04753634333610535,
          -0.014628802426159382,
          0.04555724561214447,
          0.12200403958559036,
          -0.06419319659471512,
          0.15680620074272156,
          -0.17920400202274323,
          0.17816315591335297,
          -0.08784753084182739,
          -0.154672309756279,
          -0.14945414662361145
        ]
      },
      {
        "bias": 0.16085781157016754,
        "weights": [
          0.14466995000839233,
          0.05137716978788376,
          -0.049719519913196564,
          -0.043124835938215256,
          0.05524786189198494,
          -0.16032648086547852,
          0.029469259083271027,
          -0.19730187952518463,
          0.035698603838682175,
          0.044370509684085846,
          0.08121360093355179,
          -0.08433158695697784,
          -0.19420132040977478,
          0.1652923822402954,
          -0.1613665074110031,
          0.08360759168863297,
          0.18093788623809814,
          -0.1639108508825302,
          -0.11352439969778061,
          -0.1981242597103119,
          -0.14296221733093262,
          -0.0176705215126276,
          0.16671833395957947,
          0.0013100681826472282,
          0.14951713383197784,
          0.06826186180114746,
          -0.03269480913877487,
          0.10153718292713165,
          -0.1334342658519745,
          -0.07069803774356842,
          0.04486536607146263,
          -0.118982695043087,
          -0.08836646378040314,
          -0.11720365285873413,
          0.022187376394867897,
          -0.06858706474304199,
          0.17551389336585999,
          -0.09159594029188156,
          0.05300874635577202,
          0.09838616102933884,
          0.02952907420694828,
          0.18381564319133759,
          -0.07239773124456406,
          0.11920534819364548,
          0.01662885770201683,
          -0.13733530044555664,
          -0.08421287685632706,
          0.08976854383945465,
          0.019707560539245605,
          -0.11358523368835449,
          0.037433769553899765,
          -0.061125434935092926,
          -0.04357868805527687,
          -0.13097795844078064,
          0.08949818462133408,
          -0.11847274005413055,
          -0.17061340808868408,
          -0.15338467061519623,
          -0.019637323915958405,
          -0.12120144814252853,
          0.049849074333906174,
          0.1529037207365036,
          0.19724209606647491,
          0.11215409636497498,
          0.12425827980041504,
          -0.020476365461945534,
          -0.17952021956443787,
          0.000831998826470226,
          0.019698532298207283,
          0.18252381682395935,
          -0.009634179063141346,
          -0.050507307052612305,
          0.21150028705596924,
          0.03378550708293915,
          0.1515744924545288,
          -0.16810786724090576,
          -0.10424717515707016,
          0.06310127675533295,
          0.0221804678440094,
          0.1277109831571579,
          0.0360860712826252,
          0.03297380730509758,
          0.04882405325770378,
          0.11879610270261765,
          -0.13121278584003448,
          -0.18210367858409882,
          0.09451539814472198,
          0.013227331452071667,
          0.03585708886384964,
          -0.19610270857810974,
          0.19869866967201233,
          -0.04059113934636116,
          -0.1698969006538391,
          0.08375252038240433,
          -0.09047405421733856,
          0.08556245267391205,
          0.10887119174003601,
          -0.028625139966607094,
          -0.12655122578144073,
          -0.01750883087515831,
          0.20310890674591064,
          -0.11823955178260803,
          0.035946138203144073,
          0.07520318031311035,
          0.06500272452831268,
          -0.024728259071707726,
          -0.025784354656934738,
          0.0722217932343483,
          -0.1461750566959381,
          -0.14559727907180786,
          -0.14444750547409058,
          -0.05073793604969978,
          -0.026814600452780724,
          0.024210870265960693,
          0.008405441418290138,
          -0.1324402540922165,
          -0.12667204439640045,
          -0.02298424206674099,
          0.04783999174833298,
          0.06964627653360367,
          0.06847597658634186,
          0.021007057279348373,
          -0.06903495639562607,
          -0.12564624845981598,
          -0.14830681681632996,
          0.04008781909942627,
          0.001910330611281097,
          0.2485048621892929,
          -0.011497387662529945,
          0.13283364474773407,
          -0.017655648291110992,
          -0.05138864740729332,
          0.012359745800495148,
          0.04780978336930275,
          -0.15870970487594604,
          0.09314598888158798,
          0.0623791366815567,
          0.04652855545282364,
          0.14316196739673615,
          0.19532063603401184,
          0.0008351158467121422,
          0.18483607470989227,
          -0.15835526585578918,
          0.16224493086338043,
          0.1569155752658844,
          0.0384613461792469,
          -0.05885321646928787,
          -0.1384849101305008,
          0.14500898122787476,
          -0.06325233727693558,
          -0.07640688866376877,
          -0.04476012662053108,
          0.04497402161359787,
          -0.032379668205976486,
          0.12776735424995422,
          0.03938351571559906,
          0.05491570755839348,
          -0.09280581027269363,
          -0.009751960635185242,
          -0.035679109394550323,
          0.09178294986486435,
          -0.038869984447956085,
          -0.13945263624191284,
          -0.06699735671281815,
          0.15305231511592865,
          -0.16455672681331635,
          0.1346646398305893,
          0.16290193796157837,
          -0.0661662369966507,
          0.1775149554014206,
          -0.12548887729644775,
          0.04555202275514603,
          0.2000582069158554,
          -0.026076706126332283,
          -0.06109757721424103,
          0.04848045855760574,
          0.013149184174835682,
          -0.15408772230148315,
          -0.12208862602710724,
          -0.14281359314918518,
          0.07325071841478348,
          -0.1044234186410904,
          -0.20150035619735718,
          0.07549354434013367,
          -0.24902057647705078,
          -0.026764264330267906,
          -0.10260164737701416,
          0.03732668235898018,
          0.11641949415206909,
          0.14126501977443695,
          -0.05576864257454872,
          -0.11154154688119888,
          0.06931237131357193,
          -0.06689410656690598,
          -0.1372382491827011,
          0.010045619681477547,
          0.1424219310283661,
          0.10338018089532852,
          0.053332194685935974,
          0.13264110684394836,
          0.0006373094511218369,
          -0.06975319236516953,
          -0.03444936126470566,
          0.11937636882066727,
          -0.07492495328187943,
          -0.16882099211215973,
          0.039520781487226486,
          -0.015057597309350967,
          0.08270116150379181,
          0.039238765835762024,
          -0.09275402128696442,
          -0.13292069733142853,
          -0.32817474007606506,
          -0.14829112589359283,
          -0.28317704796791077,
          -0.028468748554587364,
          0.0576140433549881,
          0.1374255120754242,
          -0.10900382697582245,
          -0.1159357875585556,
          -0.11363321542739868,
          -0.13011637330055237,
          -0.055122390389442444,
          0.07036838680505753,
          0.00929733645170927,
          -0.07449882477521896,
          0.0772683247923851,
          0.16905386745929718,
          -0.15268760919570923,
          -0.05879173055291176,
          0.15351034700870514,
          0.05970306321978569,
          -0.16989581286907196,
          -0.10791398584842682,
          -0.06746476888656616,
          -0.1774885207414627,
          -0.003966871183365583,
          -0.010548306629061699,
          -0.19290632009506226,
          -0.00685020862147212,
          -0.026204504072666168,
          -0.027018433436751366,
          -0.09975367784500122,
          -0.28188198804855347,
          -0.09691172093153,
          -0.027174241840839386,
          -0.17903117835521698,
          0.17030447721481323,
          -0.14175592362880707,
          -0.1501104086637497,
          -0.013090340420603752,
          -0.18489044904708862,
          -0.06191953644156456,
          0.05215698480606079,
          0.15498210489749908,
          0.14241907000541687,
          0.16730259358882904,
          -0.08899933099746704,
          -0.1322590708732605,
          -0.11278575658798218,
          -0.16027486324310303,
          -0.027244843542575836,
          -0.04966987296938896,
          -0.04142960533499718,
          0.1852577179670334,
          -0.126789852976799,
          -0.0013790387893095613,
          -0.030742788687348366,
          -0.1269034594297409,
          -0.1153181865811348,
          -0.31133347749710083,
          -0.21739590167999268,
          -0.19013477861881256,
          -0.04677833989262581,
          -0.18468530476093292,
          0.027481820434331894,
          0.03125167638063431,
          0.0076688434928655624,
          0.022059110924601555,
          0.020348813384771347,
          -0.172812357544899,
          0.17300164699554443,
          -0.15377625823020935,
          -0.03402198478579521,
          0.06483782827854156,
          -0.22308264672756195,
          0.08438394963741302,
          -0.19298696517944336,
          -0.144138365983963,
          0.005185394547879696,
          0.1319713294506073,
          0.08784762769937515,
          -0.040058352053165436,
          -0.039263878017663956,
          -0.2629948556423187,
          -0.24278347194194794,
          -0.24903039634227753,
          -0.027078047394752502,
          -0.18991009891033173,
          -0.15945841372013092,
          0.03576866164803505,
          0.008135841228067875,
          -0.14559391140937805,
          -0.12290296703577042,
          -0.099354587495327,
          0.13881561160087585,
          0.16618508100509644,
          0.12614627182483673,
          0.15914249420166016,
          0.04575532302260399,
          -0.10041135549545288,
          -0.1664697676897049,
          0.029404185712337494,
          -0.12310649454593658,
          0.18598362803459167,
          0.07908844202756882,
          0.10141273587942123,
          0.20531466603279114,
          -0.17904794216156006,
          -0.01456284336745739,
          -0.0843246653676033,
          0.19645282626152039,
          -0.22327277064323425,
          -0.22226707637310028,
          0.04177197813987732,
          -0.08595452457666397,
          0.0027120565064251423,
          0.07554735243320465,
          -0.13672253489494324,
          -0.021174758672714233,
          -0.17965467274188995,
          -0.1109195426106453,
          -0.14861039817333221,
          0.1523827463388443,
          0.03687715157866478,
          0.1499621719121933,
          0.07103060930967331,
          0.040419239550828934,
          -0.018384015187621117,
          -0.1054697260260582,
          -0.050523046404123306,
          0.11582499742507935,
          0.08866208791732788,
          -0.11424557864665985,
          0.12061960250139236,
          -0.06166727468371391,
          -0.10011711716651917,
          0.060601022094488144,
          0.11187694221735,
          0.07966435700654984,
          -0.07697676122188568,
          -0.03135145455598831,
          0.0326509028673172,
          -0.2234390825033188,
          -0.1648653745651245,
          -0.15168145298957825,
          0.21552222967147827,
          0.15338468551635742,
          0.03618769347667694,
          -0.08117048442363739,
          0.16808460652828217,
          0.16694320738315582,
          -0.03453194722533226,
          0.17325346171855927,
          0.13645540177822113,
          -0.08273880928754807,
          -0.057785648852586746,
          -0.07877630740404129,
          0.17195743322372437,
          0.15346220135688782,
          0.14728514850139618,
          -0.12495434284210205,
          0.20435172319412231,
          -0.021466713398694992,
          0.34414219856262207,
          0.19812031090259552,
          -0.04278845712542534,
          0.00857026781886816,
          0.020038152113556862,
          -0.1113041341304779,
          0.20841658115386963,
          0.02104370854794979,
          0.01361245196312666,
          0.19191554188728333,
          0.19759047031402588,
          -0.0072407713159918785,
          0.2119874358177185,
          -0.06143582612276077,
          0.028749261051416397,
          0.1756371706724167,
          0.19311267137527466,
          -0.06691817194223404,
          0.08517485111951828,
          -0.19103685021400452,
          0.08851838111877441,
          0.14361093938350677,
          0.12817274034023285,
          0.1642506718635559,
          0.12747395038604736,
          0.13258016109466553,
          0.1230919361114502,
          0.03276720270514488,
          0.2060185670852661,
          -0.05133065581321716,
          -0.03067181073129177,
          0.06442717462778091,
          0.24479244649410248,
          -0.10483364015817642,
          0.05127442628145218,
          0.24728426337242126,
          0.17383374273777008,
          -0.16849565505981445,
          -0.02076459676027298,
          -0.0004909557173959911,
          0.05718386545777321,
          0.14180323481559753,
          -0.16986168920993805,
          -0.16025026142597198,
          -0.017232807353138924,
          -0.11857007443904877,
          0.020891085267066956,
          0.13585980236530304,
          0.12189019471406937,
          0.006419555749744177,
          -0.1334412544965744,
          -0.15943700075149536,
          0.13993602991104126,
          -0.08005623519420624,
          0.011444557458162308,
          0.16610532999038696,
          0.12824851274490356,
          0.047993004322052,
          0.07374656200408936,
          0.04967402294278145,
          0.2757793664932251,
          0.1277010440826416,
          0.012337026186287403,
          0.1267281323671341,
          0.10839413851499557,
          0.1521487534046173,
          -0.05012664198875427,
          0.05550338700413704,
          0.00236777076497674,
          0.024867815896868706,
          0.110381580889225,
          0.06993565708398819,
          -0.02426149696111679,
          0.05363590270280838,
          -0.13511629402637482,
          -0.05691300332546234,
          0.16220787167549133,
          -0.1292942613363266,
          -0.031798847019672394,
          -0.008502800948917866,
          -0.028628891333937645,
          0.14895841479301453,
          0.23481181263923645,
          0.18158341944217682,
          0.1352926790714264,
          -0.07493049651384354,
          -0.08237704634666443,
          -0.083470419049263,
          0.22092118859291077,
          0.10074342787265778,
          0.01439366489648819,
          0.08090078085660934,
          0.023079628124833107,
          0.07174921780824661,
          -0.1915091872215271,
          0.20370452105998993,
          0.10251794010400772,
          -0.0246233232319355,
          0.15018093585968018,
          -0.10356972366571426,
          -0.13119277358055115,
          0.11628612130880356,
          -0.04453236609697342,
          0.12232782691717148,
          0.015803493559360504,
          -0.19549964368343353,
          -0.16515910625457764,
          -0.20612263679504395,
          -0.007258827798068523,
          -0.12766093015670776,
          -0.06396529078483582,
          0.1559680700302124,
          0.09453736990690231,
          -0.061506666243076324,
          0.3234860301017761,
          0.003634075401350856,
          0.12889079749584198,
          0.08086564391851425,
          0.1323944330215454,
          -0.027730219066143036,
          -0.15289399027824402,
          -0.05443109571933746,
          0.07692408561706543,
          -0.08193795382976532,
          0.03142266720533371,
          -0.06295876950025558,
          -0.04826565459370613,
          0.0013905087253078818,
          0.05061918497085571,
          0.11970953643321991,
          -0.13208459317684174,
          -0.03505346551537514,
          -0.1625322550535202,
          -0.020150568336248398,
          0.09234986454248428,
          -0.02850935608148575,
          0.09910497814416885,
          -0.24294224381446838,
          -0.10660789161920547,
          0.0784473717212677,
          0.013565661385655403,
          0.2258477807044983,
          0.07669772952795029,
          -0.08987458795309067,
          0.01710694283246994,
          0.28446584939956665,
          0.16863787174224854,
          -0.17767730355262756,
          0.12605273723602295,
          0.052987292408943176,
          0.13127385079860687,
          -0.11438573896884918,
          -0.17200131714344025,
          -0.20950287580490112,
          -0.08577819168567657,
          -0.010084982961416245,
          0.08488395810127258,
          -0.1615068018436432,
          -0.1542835384607315,
          0.1977221518754959,
          -0.16644494235515594,
          0.06294140219688416,
          0.06729212403297424,
          0.004145957063883543,
          -0.222373366355896,
          -0.0838468074798584,
          0.02659757062792778,
          -0.1827457994222641,
          -0.06556008756160736,
          -0.06117302551865578,
          0.014596540480852127,
          -0.07862572371959686,
          -0.06314439326524734,
          -0.12448561936616898,
          -0.08423598855733871,
          -0.23125018179416656,
          0.12474704533815384,
          -0.032094042748212814,
          -0.06801211833953857,
          0.07235071808099747,
          -0.10624346882104874,
          -0.014042297378182411,
          0.08966978639364243,
          -0.0037969285622239113,
          0.1158725768327713,
          0.1048995703458786,
          -0.12534278631210327,
          0.02640378475189209,
          -0.1063876673579216,
          0.007318316493183374,
          0.05496959388256073,
          -0.0403781458735466,
          -0.22257599234580994,
          0.010004861280322075,
          -0.21726596355438232,
          -0.07272037118673325,
          -0.035749319940805435,
          -0.19275040924549103,
          0.12538045644760132,
          -0.13328762352466583,
          0.1800059974193573,
          -0.09665399044752121,
          -0.20154264569282532,
          -0.0013851865660399199,
          -0.11321160942316055,
          -0.18084362149238586,
          0.01190078817307949,
          -0.16295945644378662,
          -0.0821843072772026,
          -0.19745983183383942,
          -0.1803777515888214,
          -0.0543857179582119,
          0.1931510716676712,
          0.1666557490825653,
          0.045817114412784576,
          0.17570015788078308,
          0.08341916650533676,
          0.15181797742843628,
          0.05957478657364845,
          -0.1001291275024414,
          -0.11609458178281784,
          -0.2331252247095108,
          -0.02602102793753147,
          -0.04240713268518448,
          -0.08254681527614594,
          0.05254779011011124,
          -0.14289569854736328,
          -0.06783612072467804,
          0.006278845947235823,
          -0.012110976502299309,
          -0.046079616993665695,
          0.013998035341501236,
          -0.11012464016675949,
          -0.18274690210819244,
          -0.09478652477264404,
          -0.03354823589324951,
          0.16836075484752655,
          0.04208079352974892,
          0.1628304272890091,
          -0.12160610407590866,
          0.010569804348051548,
          -0.09948444366455078,
          -0.056398842483758926,
          0.09831250458955765,
          -0.06622350960969925,
          0.1168699786067009,
          0.09715288877487183,
          0.04221384599804878,
          0.11867215484380722,
          0.14403527975082397,
          -0.17626965045928955,
          -0.21558403968811035,
          -0.22414441406726837,
          -0.14474238455295563,
          -0.019467534497380257,
          -0.2079520970582962,
          -0.17674052715301514,
          -0.08172240108251572,
          0.08908355981111526,
          -0.07324693351984024,
          0.09450124204158783,
          0.18168723583221436,
          -0.14642183482646942,
          -0.13374091684818268,
          0.008820503018796444,
          0.1395656317472458,
          0.10937865078449249,
          -0.03781105950474739,
          -0.19583410024642944,
          0.13337630033493042,
          -0.012265793979167938,
          0.15758062899112701,
          -0.062223635613918304,
          0.042114123702049255,
          -0.027954937890172005,
          -0.17434892058372498,
          0.12068689614534378,
          -0.22182121872901917,
          0.04240265116095543,
          -0.16373445093631744,
          -0.028986435383558273,
          -0.3089393973350525,
          -0.25888630747795105,
          -0.10720312595367432,
          -0.11236977577209473,
          -0.02823614701628685,
          -0.13107547163963318,
          -0.15735559165477753,
          -0.03845670446753502,
          0.06489891558885574,
          -0.1580926924943924,
          -0.11534543335437775,
          0.1924172341823578,
          0.011857496574521065,
          -0.05486689507961273,
          0.15557700395584106,
          -0.06390533596277237,
          -0.19821874797344208,
          -0.07301368564367294,
          -0.1002362072467804,
          -0.0003344026627019048,
          -0.20079874992370605,
          0.0924110859632492,
          -0.04393806681036949,
          -0.20594877004623413,
          0.09906869381666183,
          -0.2115582376718521,
          0.0556323379278183,
          -0.037546105682849884,
          0.06981503218412399,
          -0.20110833644866943,
          0.016880419105291367,
          -0.19952204823493958,
          -0.015732750296592712,
          -0.15975263714790344,
          -0.03867316246032715,
          -0.04833062365651131,
          -0.04675216227769852,
          0.022516485303640366,
          -0.03129608929157257,
          -0.1084643229842186,
          -0.06996238976716995,
          -0.1768406182527542,
          0.032281294465065,
          -0.06325355172157288,
          0.18594279885292053,
          -0.17470161616802216,
          0.0985020324587822,
          0.06303606182336807,
          0.07021822035312653,
          0.017347421497106552,
          0.1778230518102646,
          -0.06604618579149246,
          0.08634937554597855,
          0.17439161241054535,
          0.12149418890476227,
          0.15154367685317993,
          -0.060418978333473206,
          0.14580625295639038,
          0.11487838625907898,
          -0.1504191905260086,
          0.1603090614080429,
          -0.02620493620634079,
          -0.06091078743338585,
          0.08856093883514404,
          0.09589985758066177,
          0.15267391502857208,
          -0.17805945873260498,
          0.18513722717761993,
          -0.13177624344825745,
          0.0730757936835289,
          -0.15941397845745087,
          -0.18750588595867157,
          0.007762031629681587,
          -0.08716021478176117,
          -0.13059043884277344,
          -0.1411290466785431,
          0.16411590576171875,
          -0.1021730825304985,
          0.18688927590847015,
          0.17041738331317902,
          -0.04069245234131813,
          -0.08245809376239777,
          -0.029655365273356438,
          0.0813588798046112,
          0.162821963429451,
          -0.10991120338439941,
          0.0807383805513382,
          0.08122505992650986,
          0.031780991703271866,
          -0.002725821454077959,
          -0.2095879465341568,
          -0.07768142968416214,
          -0.03765604645013809,
          -0.11060453951358795,
          0.11824572086334229,
          -0.13320541381835938,
          -0.11952110379934311,
          -0.10753888636827469,
          -0.18269720673561096,
          -0.04434855282306671,
          0.1513853371143341,
          -0.0846037045121193,
          -0.05607257038354874,
          -0.10228599607944489,
          0.18661554157733917,
          0.030027024447917938,
          -0.16758069396018982,
          0.10076015442609787,
          -0.012710902839899063,
          0.09063546359539032,
          0.13670849800109863,
          0.08505449444055557,
          0.055971547961235046,
          0.027046091854572296,
          0.10710582882165909,
          -0.09898418933153152,
          0.08146513998508453,
          0.04242020100355148,
          -0.09375196695327759,
          -0.11434666067361832,
          0.047555774450302124,
          -0.17897216975688934,
          0.14423204958438873,
          -0.04893743246793747,
          -0.015874825417995453,
          -0.1102009192109108,
          -0.15842798352241516,
          0.13102193176746368,
          0.134883314371109
        ]
      },
      {
        "bias": -0.049606651067733765,
        "weights": [
          -0.016251495108008385,
          -0.09687066823244095,
          -0.010956701822578907,
          -0.04234316945075989,
          -0.07658666372299194,
          0.15663942694664001,
          -0.025700388476252556,
          0.06958552449941635,
          -0.13229970633983612,
          0.14719277620315552,
          -0.1259819120168686,
          0.05335065349936485,
          0.031612545251846313,
          -0.19180569052696228,
          0.10244771838188171,
          0.13454318046569824,
          0.05990684777498245,
          0.015981482341885567,
          -0.13460154831409454,
          -0.1365155428647995,
          0.1664140224456787,
          0.053099412471055984,
          0.15005329251289368,
          -0.1055564135313034,
          0.11268783360719681,
          -0.10749688744544983,
          -0.19203077256679535,
          0.10669345408678055,
          -0.01255279965698719,
          -0.0947721004486084,
          -0.17136716842651367,
          -0.12451532483100891,
          -0.017375167459249496,
          0.029181567952036858,
          0.1636333465576172,
          -0.15225689113140106,
          -0.14559756219387054,
          -0.026425393298268318,
          0.18155664205551147,
          -0.07048232108354568,
          -0.13646118342876434,
          0.17939119040966034,
          -0.15426860749721527,
          0.18609152734279633,
          -0.17475751042366028,
          -0.005277413874864578,
          0.04132489860057831,
          -0.11111751198768616,
          -0.008828933350741863,
          -0.1865871697664261,
          -0.136316180229187,
          0.18115828931331635,
          -0.07439754158258438,
          0.13876855373382568,
          -0.12829352915287018,
          0.07205211371183395,
          -0.17582237720489502,
          0.04316917434334755,
          0.046817973256111145,
          -0.025346258655190468,
          -0.07359153777360916,
          0.12932538986206055,
          -0.10397511720657349,
          0.16061429679393768,
          0.12044478207826614,
          0.019866306334733963,
          0.20022879540920258,
          -0.05473100394010544,
          0.07032813876867294,
          -0.009689551778137684,
          0.1406807154417038,
          0.0476289726793766,
          0.077077217400074,
          -0.010521527379751205,
          -0.15499991178512573,
          0.042325008660554886,
          0.029096581041812897,
          0.14266161620616913,
          0.10837511718273163,
          -0.14381195604801178,
          0.051197588443756104,
          0.15469710528850555,
          0.18179763853549957,
          0.1656794548034668,
          -0.1824961155653,
          0.1768776923418045,
          0.027438851073384285,
          0.002517026849091053,
          -0.003246954409405589,
          0.055791061371564865,
          0.07403291761875153,
          -0.11867871880531311,
          0.11663443595170975,
          -0.214254230260849,
          -0.15123458206653595,
          0.19926199316978455,
          -0.11043795198202133,
          -0.0961938202381134,
          0.15281648933887482,
          0.226623997092247,
          -0.023233814164996147,
          -0.05226564034819603,
          0.26609185338020325,
          0.10799691081047058,
          0.19703757762908936,
          0.20014123618602753,
          -0.16027913987636566,
          0.031625840812921524,
          -0.1391783356666565,
          -0.030613858252763748,
          -0.01889904774725437,
          0.045411039143800735,
          0.06342627108097076,
          -0.02045825496315956,
          -0.13561634719371796,
          0.14596903324127197,
          -0.05455608665943146,
          -0.1491795778274536,
          0.18139025568962097,
          0.015570265240967274,
          -0.15723346173763275,
          -0.07314086705446243,
          -0.1580542027950287,
          0.11407721787691116,
          -0.0668783113360405,
          0.035129446536302567,
          -0.010987348854541779,
          0.22062817215919495,
          0.032008588314056396,
          0.25239649415016174,
          0.09212291985750198,
          0.08096078783273697,
          -0.07371741533279419,
          -0.1211373507976532,
          -0.1321590393781662,
          -0.13981443643569946,
          0.07465345412492752,
          -0.10353676229715347,
          0.0745881125330925,
          -0.13902245461940765,
          -0.00012579126632772386,
          -0.08395271003246307,
          -0.0651935413479805,
          -0.12298145145177841,
          0.04578743129968643,
          0.01022761408239603,
          -0.15218977630138397,
          -0.16906914114952087,
          0.10813278704881668,
          0.20661725103855133,
          -0.14522089064121246,
          0.10403173416852951,
          -0.13271349668502808,
          -0.03342796862125397,
          -0.24731402099132538,
          0.05373777076601982,
          0.09980223327875137,
          0.03357470780611038,
          -0.2011282593011856,
          -0.08313588798046112,
          0.05328670144081116,
          -0.10415050387382507,
          -0.12589386105537415,
          -0.06408549100160599,
          -0.17853523790836334,
          -0.022923199459910393,
          -0.0571264773607254,
          -0.08136928081512451,
          0.03335921838879585,
          -0.04102560505270958,
          0.14763237535953522,
          0.14452627301216125,
          0.06677199900150299,
          0.0957702025771141,
          0.0671229362487793,
          0.17578360438346863,
          0.12322768568992615,
          -0.10993047058582306,
          0.0003825806197710335,
          0.03253072872757912,
          -0.16731910407543182,
          0.017742658033967018,
          0.18827328085899353,
          0.003944000694900751,
          0.06552736461162567,
          0.08111172169446945,
          -0.0370791032910347,
          -0.22426335513591766,
          -0.29342302680015564,
          0.06770786643028259,
          -0.12836165726184845,
          -0.16756285727024078,
          -0.2166222631931305,
          -0.16618014872074127,
          0.12612119317054749,
          0.0216100811958313,
          -0.07580284774303436,
          -0.12679529190063477,
          -0.12007615715265274,
          -0.20248718559741974,
          -0.20777657628059387,
          -0.012571441009640694,
          -0.038342006504535675,
          0.07577281445264816,
          -0.17935268580913544,
          -0.09978016465902328,
          0.0966821163892746,
          -0.08168849349021912,
          -0.0408954843878746,
          -0.09282265603542328,
          0.13859207928180695,
          0.06891460716724396,
          0.02830217033624649,
          -0.1354724019765854,
          -0.1327977180480957,
          0.10979379713535309,
          -0.11212818324565887,
          -0.07660775631666183,
          0.058486223220825195,
          -0.126325786113739,
          -0.010466421023011208,
          -0.19898544251918793,
          0.02517986297607422,
          -0.20670142769813538,
          0.12637154757976532,
          -0.15842653810977936,
          -0.15546521544456482,
          0.18889328837394714,
          0.13985776901245117,
          0.035404689610004425,
          0.03549707308411598,
          -0.07635761052370071,
          -0.19399257004261017,
          -0.1082024872303009,
          0.0018861294956877828,
          -0.27760234475135803,
          0.027310755103826523,
          0.15697386860847473,
          0.04198575019836426,
          0.07893431931734085,
          -0.04383860528469086,
          0.011736801825463772,
          -0.06673309206962585,
          0.11164838075637817,
          -0.296918123960495,
          -0.08791816234588623,
          -0.2396528422832489,
          -0.22450631856918335,
          -0.2871875762939453,
          -0.20666243135929108,
          -0.028871802613139153,
          -0.19715136289596558,
          -0.044774625450372696,
          0.14859846234321594,
          -0.13925765454769135,
          0.06501477211713791,
          0.10600616782903671,
          0.025959735736250877,
          -0.18543097376823425,
          0.05037722364068031,
          -0.1511497050523758,
          -0.06648349016904831,
          0.14712940156459808,
          -0.04023592174053192,
          0.18947884440422058,
          -0.13378222286701202,
          0.1465480625629425,
          0.0778554379940033,
          -0.1353725790977478,
          -0.10408993065357208,
          -0.020351532846689224,
          -0.2590094208717346,
          0.11383000016212463,
          -0.10311366617679596,
          -0.3633127510547638,
          -0.16709625720977783,
          -0.23269672691822052,
          -0.20530354976654053,
          0.04206378385424614,
          0.18244235217571259,
          0.18338969349861145,
          -0.0206611268222332,
          0.1318638026714325,
          0.06220071390271187,
          -0.22566992044448853,
          -0.07842116057872772,
          -0.1525297462940216,
          0.11765565723180771,
          -0.1759965717792511,
          0.1148809939622879,
          0.08490117639303207,
          0.11186763644218445,
          0.10574057698249817,
          0.06304117292165756,
          -0.006236186716705561,
          0.1711152344942093,
          -0.0035955116618424654,
          0.08450110256671906,
          0.03074369952082634,
          -0.0737815871834755,
          -0.03662925213575363,
          0.05719772353768349,
          -0.11094324290752411,
          0.029965640977025032,
          -0.04164254292845726,
          0.115294449031353,
          0.17016230523586273,
          0.002953178947791457,
          0.07336463034152985,
          -0.022915203124284744,
          0.15061570703983307,
          -0.011587236076593399,
          -0.20207569003105164,
          0.14940598607063293,
          0.1924172192811966,
          0.15935160219669342,
          0.0050540585070848465,
          -0.18698203563690186,
          -0.17677967250347137,
          -0.22650213539600372,
          0.0705309584736824,
          -0.0697070062160492,
          -0.20127403736114502,
          0.04971511662006378,
          -0.051068857312202454,
          -0.1027936190366745,
          -0.11287722736597061,
          0.12329549342393875,
          -0.159051775932312,
          0.04011526331305504,
          -0.06124678999185562,
          -0.07432620227336884,
          0.029419273138046265,
          0.02775617688894272,
          -0.12120679765939713,
          -0.09833016991615295,
          0.11856740713119507,
          -0.19789721071720123,
          0.08753931522369385,
          0.20235633850097656,
          0.10791891813278198,
          -0.0005836640484631062,
          -0.016318999230861664,
          -0.09473851323127747,
          -0.03962232545018196,
          0.17315885424613953,
          -0.24586303532123566,
          -0.22033774852752686,
          -0.2861073911190033,
          -0.07302455604076385,
          0.01989375799894333,
          0.2196260392665863,
          -0.020521124824881554,
          0.14596454799175262,
          0.10364211350679398,
          -0.07864221185445786,
          -0.0777459442615509,
          0.019315704703330994,
          0.03366720676422119,
          -0.17406941950321198,
          0.009902818128466606,
          -0.1369844228029251,
          -0.03047700971364975,
          -0.12793539464473724,
          -0.19020089507102966,
          -0.08855774998664856,
          -0.06323447823524475,
          0.08113506436347961,
          -0.13986684381961823,
          0.08808062225580215,
          -0.21941742300987244,
          -0.13327212631702423,
          -0.08775242418050766,
          0.17363858222961426,
          0.07318983227014542,
          0.04904074966907501,
          0.07692813128232956,
          -0.1032799556851387,
          0.17078754305839539,
          0.09946976602077484,
          -0.01320677250623703,
          0.06615163385868073,
          0.06488528847694397,
          -0.009872705675661564,
          0.01485639438033104,
          0.03635673224925995,
          0.18117903172969818,
          0.16719450056552887,
          -0.06631738692522049,
          0.02389891818165779,
          0.11366499215364456,
          -0.0021654514130204916,
          -0.031292445957660675,
          0.03861220180988312,
          0.008178303949534893,
          0.08279675245285034,
          0.1560501903295517,
          0.1458696573972702,
          -0.2141180783510208,
          -0.0035227972548455,
          0.15707719326019287,
          0.25757986307144165,
          0.01606772094964981,
          -0.1612350195646286,
          -0.01731855608522892,
          -0.027492990717291832,
          0.16179662942886353,
          0.17592933773994446,
          0.15799538791179657,
          -0.015203023329377174,
          0.06566687673330307,
          0.09046563506126404,
          0.04677490144968033,
          0.18441498279571533,
          -0.05774933099746704,
          -0.045916326344013214,
          0.12876060605049133,
          -0.18749085068702698,
          0.05582079291343689,
          0.004997520707547665,
          0.08478415012359619,
          0.15556968748569489,
          0.01930207572877407,
          0.11999253183603287,
          0.1874561309814453,
          0.0873425155878067,
          0.0618993304669857,
          -0.04826940596103668,
          -0.07955542206764221,
          0.20155195891857147,
          0.0656878873705864,
          -0.16728265583515167,
          0.03774002939462662,
          0.10482443124055862,
          0.16767777502536774,
          0.0026460979133844376,
          -0.022714171558618546,
          0.13811209797859192,
          -0.1436385214328766,
          0.04536150395870209,
          0.010601617395877838,
          0.0991324633359909,
          -0.05849219486117363,
          -0.02182871103286743,
          -0.09500373154878616,
          -0.04828451946377754,
          0.049095697700977325,
          0.10237284004688263,
          -0.0415891632437706,
          -0.12682482600212097,
          0.013671052642166615,
          -0.1991528570652008,
          -0.08358956128358841,
          -0.18261867761611938,
          0.019875260069966316,
          -0.14893409609794617,
          -0.04822264611721039,
          -0.09224852174520493,
          -0.1730017066001892,
          0.007055975496768951,
          0.14816002547740936,
          0.1830769181251526,
          0.13920074701309204,
          -0.16554731130599976,
          -0.029927652329206467,
          0.052862975746393204,
          -0.13546429574489594,
          -0.03406468406319618,
          -0.035929981619119644,
          -0.19496367871761322,
          0.011576097458600998,
          -0.07225402444601059,
          -0.08720222860574722,
          0.1127881333231926,
          0.09034154564142227,
          -0.07148374617099762,
          0.15651936829090118,
          0.0440555177628994,
          0.06901521980762482,
          0.13916903734207153,
          0.08012064546346664,
          -0.08911201357841492,
          -0.12104030698537827,
          -0.00951848179101944,
          0.12192695587873459,
          -0.031098240986466408,
          -0.010263740085065365,
          -0.11304961144924164,
          0.21837186813354492,
          0.34284940361976624,
          0.15352560579776764,
          -0.053720004856586456,
          0.05087783932685852,
          -0.22168372571468353,
          -0.20493660867214203,
          -0.05548126995563507,
          0.09398693591356277,
          0.005892000626772642,
          -0.054340239614248276,
          0.1741085648536682,
          -0.08116548508405685,
          -0.07874090224504471,
          0.037801291793584824,
          0.14165739715099335,
          -0.16597960889339447,
          -0.1262940913438797,
          0.16191673278808594,
          -0.04548471048474312,
          -0.03768016770482063,
          0.12125858664512634,
          0.026750490069389343,
          -0.23194918036460876,
          0.114475779235363,
          -0.11930887401103973,
          0.2447550743818283,
          0.20245009660720825,
          0.175001323223114,
          -0.13346558809280396,
          0.1337071806192398,
          -0.04220493882894516,
          -0.09339935332536697,
          0.10564403980970383,
          0.12081348150968552,
          -0.030405713245272636,
          0.18152907490730286,
          0.059132665395736694,
          -0.1475832760334015,
          -0.1590465009212494,
          0.18274317681789398,
          -0.0674096867442131,
          0.0288072656840086,
          -0.06837841868400574,
          0.06856372207403183,
          0.15906983613967896,
          0.12885037064552307,
          0.18377241492271423,
          0.13933494687080383,
          -0.04639454931020737,
          -0.1638491302728653,
          0.025594767183065414,
          -0.22105543315410614,
          0.0024043305311352015,
          0.1865614503622055,
          -0.1149211898446083,
          0.21015939116477966,
          0.16338308155536652,
          0.22094976902008057,
          -0.0463072843849659,
          -0.08651556819677353,
          -0.014602208510041237,
          -0.036372747272253036,
          -0.0676739290356636,
          0.12426072359085083,
          0.16880683600902557,
          -0.17247073352336884,
          0.15548820793628693,
          -0.013014034368097782,
          0.0773305892944336,
          0.10991773754358292,
          -0.08842696249485016,
          -0.17047783732414246,
          0.01270407997071743,
          0.18502703309059143,
          -0.14864274859428406,
          -0.044140737503767014,
          0.07174579054117203,
          -0.04513512924313545,
          -0.20702102780342102,
          -0.2553170621395111,
          -0.17642813920974731,
          0.04775463044643402,
          -0.06715522706508636,
          0.2070343792438507,
          -0.04648225009441376,
          -0.17427349090576172,
          -0.20978273451328278,
          -0.2363138049840927,
          -0.1527886688709259,
          -0.2113061398267746,
          0.019239915534853935,
          0.01058586873114109,
          -0.04638940468430519,
          -0.09432339668273926,
          -0.06204725429415703,
          0.07322707772254944,
          -0.14772500097751617,
          -0.11385613679885864,
          0.07491277158260345,
          0.002593759912997484,
          0.00014341740461532027,
          0.04969174414873123,
          0.14662140607833862,
          -0.0409742146730423,
          0.1995793581008911,
          -0.14977476000785828,
          -0.17025260627269745,
          0.08703428506851196,
          -0.0924738198518753,
          -0.10697450488805771,
          -0.05176268890500069,
          -0.07831556349992752,
          -0.17597956955432892,
          -0.08193354308605194,
          0.008536607958376408,
          0.08817677944898605,
          -0.047643329948186874,
          -0.24211367964744568,
          0.16425104439258575,
          0.1312238574028015,
          -0.03278752416372299,
          0.1456669121980667,
          -0.2144540399312973,
          -0.0012034883257001638,
          -0.016772860661149025,
          -0.18930943310260773,
          0.0629606619477272,
          -0.11634890735149384,
          0.023050406947731972,
          0.014422436244785786,
          -0.0047340551391243935,
          0.1970672756433487,
          0.1980457752943039,
          -0.10949955880641937,
          0.1014324352145195,
          -0.08698345720767975,
          0.19757409393787384,
          -0.21376855671405792,
          -0.15165720880031586,
          -0.1392560750246048,
          0.07600421458482742,
          0.11010105907917023,
          0.036940060555934906,
          0.1598990261554718,
          -0.08155453205108643,
          -0.15779447555541992,
          -0.04451635479927063,
          -0.07768724113702774,
          -0.14120633900165558,
          0.07162007689476013,
          0.018855690956115723,
          0.17091237008571625,
          -0.15430857241153717,
          0.01031182985752821,
          0.0262969508767128,
          0.08076980710029602,
          0.08903277665376663,
          0.087522491812706,
          -0.10832469165325165,
          0.021455129608511925,
          0.1005856841802597,
          0.02805081568658352,
          -0.03280434012413025,
          -0.22612538933753967,
          -0.14789380133152008,
          -0.07064549624919891,
          -0.2363140732049942,
          -0.4145033359527588,
          -0.4189842939376831,
          -0.3489646315574646,
          -0.31090885400772095,
          -0.12395211309194565,
          0.010508832521736622,
          0.0540483221411705,
          0.19108623266220093,
          -0.03627440705895424,
          0.19156113266944885,
          0.0036651829723268747,
          -0.141033336520195,
          0.028975287452340126,
          0.017184125259518623,
          -0.06460794061422348,
          0.0936778262257576,
          0.06101490557193756,
          -0.16563190519809723,
          -0.10700561106204987,
          -0.03504107892513275,
          -0.09060496091842651,
          -0.0987042561173439,
          -0.002594936406239867,
          0.09433232992887497,
          0.10790836066007614,
          -0.20765367150306702,
          0.16771437227725983,
          0.13295353949069977,
          -0.03076847642660141,
          -0.28927960991859436,
          -0.05742930620908737,
          -0.14054374396800995,
          0.08311908692121506,
          0.14099882543087006,
          0.16914109885692596,
          0.0934353843331337,
          -0.043909743428230286,
          -0.002208385383710265,
          -0.14388620853424072,
          0.17811527848243713,
          0.001721921726129949,
          0.027687735855579376,
          -0.07848089188337326,
          -0.13516096770763397,
          -0.1857338696718216,
          -0.06117699295282364,
          -0.1552395224571228,
          -0.15919747948646545,
          -0.04120803624391556,
          -0.031474411487579346,
          -0.1447058916091919,
          0.16582168638706207,
          -0.1714727282524109,
          -0.19682089984416962,
          0.054035767912864685,
          0.1581755131483078,
          0.13746818900108337,
          0.006173103116452694,
          0.017426101490855217,
          0.11594023555517197,
          -0.06909134984016418,
          0.14760209619998932,
          0.16021375358104706,
          -0.04972411319613457,
          0.2106585055589676,
          -0.012304692529141903,
          0.1147180125117302,
          0.19181519746780396,
          0.09392602741718292,
          0.076724573969841,
          0.19339866936206818,
          -0.17607983946800232,
          -0.13950778543949127,
          0.022938665002584457,
          -0.13722899556159973,
          -0.09611916542053223,
          -0.18176956474781036,
          -0.165276899933815,
          -0.16694198548793793,
          0.13972114026546478,
          0.03927620127797127,
          0.2037324458360672,
          0.15136131644248962,
          0.0854962095618248,
          -0.019628342241048813,
          -0.041503630578517914,
          0.08280757814645767,
          0.21492668986320496,
          0.01962037943303585,
          -0.18201227486133575,
          -0.14467757940292358,
          0.013711745850741863,
          0.1182125061750412,
          0.13158747553825378,
          -0.0891837403178215,
          0.024175219237804413,
          0.1994205117225647,
          0.022584104910492897,
          0.19189059734344482,
          -0.07039031386375427,
          -0.08997955918312073,
          0.07566254585981369,
          0.007299778517335653,
          -0.19102396070957184,
          -0.0971941128373146,
          0.1696508675813675,
          0.13471968472003937,
          -0.00453150412067771,
          0.19979152083396912,
          0.02408161386847496,
          0.0939679890871048,
          -0.16768506169319153,
          -0.11081314831972122,
          -0.1801396906375885,
          -0.046874914318323135,
          -0.1837746798992157,
          0.11947888880968094,
          -0.14145542681217194,
          -0.04844485595822334,
          -0.04849754273891449,
          0.12589220702648163,
          0.1904105395078659,
          0.06289546191692352,
          -0.1302310675382614,
          0.14947450160980225,
          0.03325492888689041,
          0.1517118364572525,
          -0.19223463535308838
        ]
      },
      {
        "bias": -0.03473673015832901,
        "weights": [
          -0.06447207182645798,
          0.19051311910152435,
          0.11419989913702011,
          -0.12448010593652725,
          -0.018892453983426094,
          -0.12874220311641693,
          0.18778064846992493,
          0.07087423652410507,
          0.02342051826417446,
          -0.12434267997741699,
          -0.17869465053081512,
          -0.18202918767929077,
          -0.003945470787584782,
          -0.18862421810626984,
          0.022563360631465912,
          0.06491809338331223,
          0.11745238304138184,
          -0.05413311719894409,
          -0.16316555440425873,
          0.11188698559999466,
          -0.13051190972328186,
          0.005127020180225372,
          -0.14287282526493073,
          0.10074689239263535,
          -0.13547354936599731,
          0.1730588972568512,
          0.07203800231218338,
          0.06018757447600365,
          -0.04756749048829079,
          -0.11519203335046768,
          0.0025289934128522873,
          0.05463691055774689,
          -0.018026668578386307,
          0.057326480746269226,
          0.1989685595035553,
          0.027131548151373863,
          0.0446193665266037,
          0.0062567489221692085,
          0.07873668521642685,
          -0.17092175781726837,
          0.16640812158584595,
          0.13168546557426453,
          0.09696090966463089,
          0.1014070063829422,
          0.11002778261899948,
          0.04220744967460632,
          0.14757803082466125,
          0.14196598529815674,
          -0.050832923501729965,
          -0.08990246057510376,
          0.16983680427074432,
          -0.12397300451993942,
          -0.01717187650501728,
          0.1920563131570816,
          0.0009315996430814266,
          -0.05866812914609909,
          -0.15162774920463562,
          0.06209206208586693,
          -0.0805363655090332,
          -0.02468048967421055,
          -0.1905677616596222,
          0.1728232204914093,
          0.13723136484622955,
          0.12376771122217178,
          0.09181707352399826,
          -0.006258437409996986,
          0.09205152839422226,
          0.07731890678405762,
          0.19510936737060547,
          0.13089154660701752,
          -0.05545295402407646,
          0.15060405433177948,
          0.15068021416664124,
          0.0701875239610672,
          0.14188392460346222,
          -0.05103973299264908,
          -0.16596126556396484,
          -0.17681057751178741,
          -0.13536623120307922,
          -0.12132497876882553,
          0.08775628358125687,
          0.13944341242313385,
          0.032336603850126266,
          -0.11718713492155075,
          0.03154664859175682,
          -0.000543505244422704,
          0.13228584825992584,
          0.15603424608707428,
          -0.16935214400291443,
          -0.045903224498033524,
          -0.10708555579185486,
          0.04847237095236778,
          -0.13578729331493378,
          0.13467702269554138,
          0.05463474616408348,
          0.10325652360916138,
          -0.15241383016109467,
          -0.11702455580234528,
          -0.08313578367233276,
          0.10797299444675446,
          0.0214292760938406,
          -0.058460596948862076,
          0.07057049870491028,
          0.08796770125627518,
          -0.0805429220199585,
          -0.048017505556344986,
          -0.0009395844535902143,
          -0.06509948521852493,
          -0.10792384296655655,
          0.14736612141132355,
          0.050945769995450974,
          0.05315307900309563,
          0.1475570648908615,
          0.07542175054550171,
          -0.05346130207180977,
          0.06820012629032135,
          -0.17061340808868408,
          0.13078515231609344,
          0.1757301688194275,
          0.17591798305511475,
          -0.02042810432612896,
          -0.12260334193706512,
          -0.16536493599414825,
          0.009772814810276031,
          -0.10682892799377441,
          0.1710464060306549,
          0.12726692855358124,
          0.01588345505297184,
          0.04107147082686424,
          -0.08422679454088211,
          0.08101920783519745,
          0.07424472272396088,
          0.04814525693655014,
          -0.11730460822582245,
          -0.17138135433197021,
          -0.1833771914243698,
          0.038168564438819885,
          0.023195937275886536,
          0.1784840077161789,
          0.10870641469955444,
          0.007741341833025217,
          0.12231271713972092,
          -0.10376789420843124,
          0.048795729875564575,
          0.0800497755408287,
          0.15959003567695618,
          -0.00785689614713192,
          -0.013558918610215187,
          0.18298055231571198,
          -0.16941885650157928,
          0.004640736151486635,
          0.19942420721054077,
          0.010478466749191284,
          0.1851523071527481,
          0.1862252950668335,
          -0.005144800059497356,
          0.012333557941019535,
          0.19399172067642212,
          -0.04488179087638855,
          0.15582533180713654,
          -0.0722799152135849,
          -0.03273340314626694,
          -0.15602457523345947,
          -0.202284574508667,
          0.00024971645325422287,
          -0.13295264542102814,
          -0.14881788194179535,
          0.17273898422718048,
          -0.03379680588841438,
          -0.18235155940055847,
          -0.17722371220588684,
          -0.15107853710651398,
          0.11188571155071259,
          -0.10281018167734146,
          -0.06401665508747101,
          0.20831558108329773,
          0.09789512306451797,
          -0.23442475497722626,
          0.05314317345619202,
          -0.06593400239944458,
          0.01110350713133812,
          -0.0773368701338768,
          -0.0026776138693094254,
          0.13217943906784058,
          0.23287449777126312,
          -0.07244329154491425,
          0.15872876346111298,
          -0.08509445190429688,
          -0.20747828483581543,
          -0.0016013460699468851,
          -0.1024509072303772,
          0.0514259859919548,
          -0.02479408122599125,
          0.04637321084737778,
          -0.12773245573043823,
          0.1990925520658493,
          0.14387793838977814,
          0.1969819962978363,
          0.18579484522342682,
          -0.17595602571964264,
          0.04679660126566887,
          0.17340923845767975,
          0.18794365227222443,
          -0.15978620946407318,
          0.15692353248596191,
          -0.02674906887114048,
          0.006619450636208057,
          -0.06972800940275192,
          -0.16347213089466095,
          -0.18541397154331207,
          0.23257459700107574,
          0.22647438943386078,
          0.21735572814941406,
          0.13921749591827393,
          -0.21176743507385254,
          -0.06305306404829025,
          0.05817543342709541,
          0.035180505365133286,
          -0.284847617149353,
          -0.10772655159235,
          -0.20675572752952576,
          0.07838461548089981,
          -0.14934343099594116,
          -0.1615273356437683,
          0.1402444690465927,
          -0.12167187035083771,
          -0.023713810369372368,
          0.006210224702954292,
          -0.15408340096473694,
          -0.06567880511283875,
          0.21703757345676422,
          0.0010803723707795143,
          0.0782085508108139,
          -0.08438725024461746,
          -0.1738017201423645,
          0.05996384844183922,
          -0.10130038112401962,
          0.045643456280231476,
          0.016197698190808296,
          0.002675155643373728,
          -0.16001614928245544,
          0.22397808730602264,
          -0.007734440732747316,
          0.13192781805992126,
          0.04854726418852806,
          0.08112534135580063,
          0.04838036000728607,
          -0.13153231143951416,
          0.06641527265310287,
          -0.09240525215864182,
          0.1954190582036972,
          -0.054319482296705246,
          0.03529001399874687,
          -0.1907336711883545,
          -0.13601478934288025,
          0.06462591886520386,
          -0.012454541400074959,
          -0.10809530317783356,
          -0.07569778710603714,
          0.1659027636051178,
          0.11371397972106934,
          0.1592559814453125,
          0.09149622172117233,
          -0.03622103109955788,
          0.15331816673278809,
          -0.10370862483978271,
          -0.07929394394159317,
          0.1443285495042801,
          0.16460202634334564,
          -0.095150887966156,
          -0.209713876247406,
          0.15536218881607056,
          0.009628280997276306,
          -0.07301558554172516,
          0.07697435468435287,
          -0.19806921482086182,
          -0.0017671268433332443,
          -0.12649475038051605,
          -0.07845436036586761,
          0.10023148357868195,
          -0.005564739927649498,
          -0.09492535889148712,
          -0.17711256444454193,
          -0.11654070019721985,
          0.15967857837677002,
          0.0048235696740448475,
          0.09197894483804703,
          0.12843094766139984,
          0.05509176105260849,
          0.1289231926202774,
          -0.03291018307209015,
          0.06862454861402512,
          0.10279582440853119,
          0.08960331231355667,
          0.03867345303297043,
          -0.001216087257489562,
          -0.1888902634382248,
          0.036087583750486374,
          -0.019930774345993996,
          0.13694527745246887,
          0.17258650064468384,
          0.1085275411605835,
          -0.10284943878650665,
          0.17372053861618042,
          0.07880362123250961,
          -0.18091951310634613,
          -0.037734027951955795,
          0.05649641901254654,
          0.02941247634589672,
          0.007006487809121609,
          -0.12171138823032379,
          0.06915642321109772,
          -0.0860222801566124,
          0.15344327688217163,
          -0.10318056493997574,
          0.16905628144741058,
          -0.12229517102241516,
          0.1083344966173172,
          0.01655838079750538,
          0.0030009658075869083,
          -0.1629106104373932,
          -0.21071785688400269,
          0.03204696998000145,
          -0.2313789278268814,
          0.05324472114443779,
          0.11989957839250565,
          0.14541885256767273,
          -0.0700266882777214,
          0.14201873540878296,
          -0.03672473132610321,
          -0.11640767753124237,
          0.22107090055942535,
          0.041187893599271774,
          0.09765724092721939,
          -0.10377204418182373,
          -0.18737395107746124,
          0.12551464140415192,
          -0.1578688770532608,
          0.1251441389322281,
          -0.01631823368370533,
          -0.10552246868610382,
          0.012691408395767212,
          0.2198307365179062,
          -0.020793911069631577,
          -0.19850745797157288,
          -0.1798352599143982,
          0.043348025530576706,
          -0.0715622827410698,
          -0.15627610683441162,
          -0.2397865504026413,
          -0.13821226358413696,
          -0.1255689114332199,
          -0.012721678242087364,
          0.043497245758771896,
          -0.1153794527053833,
          0.1822681725025177,
          0.0826631411910057,
          0.07080655544996262,
          -0.027065977454185486,
          0.15812958776950836,
          0.027835015207529068,
          -0.13360854983329773,
          0.08763279020786285,
          -0.036719657480716705,
          -0.019324272871017456,
          -0.1766778975725174,
          0.17659057676792145,
          -0.1449270099401474,
          -0.11234388500452042,
          0.039018046110868454,
          -0.034159351140260696,
          -0.22960121929645538,
          -0.06210235133767128,
          0.07703256607055664,
          -0.14740920066833496,
          0.05968671292066574,
          -0.11068408936262131,
          -0.15894782543182373,
          -0.18370746076107025,
          -0.0943366289138794,
          -0.10850132256746292,
          -0.19209705293178558,
          -0.07615213841199875,
          -0.19367113709449768,
          -0.2073637843132019,
          0.03353692591190338,
          -0.1348077952861786,
          0.09509209543466568,
          0.02070734091103077,
          -0.05637192726135254,
          -0.08300527185201645,
          -0.12228073179721832,
          -0.10606545209884644,
          -0.021230291575193405,
          -0.011868562549352646,
          -0.11086857318878174,
          -0.0985790565609932,
          -0.17115461826324463,
          0.01260598935186863,
          -0.14570842683315277,
          0.10275593400001526,
          -0.08380525559186935,
          -0.1047402173280716,
          0.15411989390850067,
          0.08725474774837494,
          0.07060547918081284,
          -0.03128575533628464,
          -0.17089079320430756,
          -0.08563429117202759,
          0.011949952691793442,
          0.016010155901312828,
          -0.08499649167060852,
          0.015714125707745552,
          0.15894126892089844,
          -0.17067620158195496,
          -0.05868782848119736,
          0.1838083118200302,
          -0.09527954459190369,
          -0.14013251662254333,
          -0.056136880069971085,
          -0.07319001108407974,
          -0.10473594069480896,
          -0.05381902679800987,
          -0.10257738083600998,
          -0.029052045196294785,
          0.11439435929059982,
          -0.18743430078029633,
          0.07964371144771576,
          0.11877665668725967,
          -0.14178411662578583,
          -0.02337348647415638,
          -0.10375779867172241,
          0.0715770423412323,
          -0.02692510187625885,
          0.020120084285736084,
          0.0014829605352133512,
          0.14754444360733032,
          -0.10248155146837234,
          0.037478066980838776,
          -0.2706781029701233,
          0.09207595884799957,
          0.09668305516242981,
          0.018491508439183235,
          0.14852170646190643,
          -0.13517595827579498,
          0.07080984860658646,
          0.13716962933540344,
          -0.16779568791389465,
          -0.05982930213212967,
          -0.17056763172149658,
          -0.1865067332983017,
          0.16349633038043976,
          -0.1599181741476059,
          -0.005556871648877859,
          0.08187118917703629,
          -0.10653635114431381,
          -0.19805744290351868,
          -0.15911544859409332,
          0.09069216251373291,
          -0.04060274735093117,
          0.10767802596092224,
          -0.2405378818511963,
          -0.15398454666137695,
          0.039956025779247284,
          -0.08469357341527939,
          -0.1418679654598236,
          -0.09557352215051651,
          -0.023454789072275162,
          0.05789956822991371,
          -0.12720553576946259,
          -0.05662824586033821,
          -0.16379578411579132,
          0.11599192023277283,
          -0.15404051542282104,
          0.04402486979961395,
          0.03326454386115074,
          0.10362318903207779,
          0.1153973862528801,
          -0.1107785627245903,
          0.16199350357055664,
          0.13487258553504944,
          -0.07589242607355118,
          0.17126379907131195,
          -0.212354838848114,
          0.08786403387784958,
          0.19871585071086884,
          -0.09686151146888733,
          0.2647410035133362,
          -0.014102399349212646,
          -0.03576573356986046,
          0.03407211974263191,
          0.01789020746946335,
          0.15820956230163574,
          -0.22034765779972076,
          -0.00807971227914095,
          0.001041439943946898,
          0.10497921705245972,
          0.08237604796886444,
          0.08869859576225281,
          0.12469125539064407,
          0.1881190687417984,
          0.06786483526229858,
          0.08602900803089142,
          0.14869841933250427,
          -0.08014344424009323,
          0.022375207394361496,
          -0.04143034666776657,
          0.010521475225687027,
          -0.10249995440244675,
          -0.18049228191375732,
          0.13306716084480286,
          0.11667841672897339,
          0.17623478174209595,
          0.25569891929626465,
          0.12498902529478073,
          0.08508777618408203,
          -0.027668466791510582,
          0.02204757183790207,
          0.11951366066932678,
          -0.10788702964782715,
          -0.1270884871482849,
          0.09005267173051834,
          0.18520618975162506,
          -0.1020057424902916,
          -0.15448503196239471,
          -0.1054505780339241,
          0.020913833752274513,
          0.010032890364527702,
          -0.07437104731798172,
          -0.04404919967055321,
          0.1971398890018463,
          -0.1859157532453537,
          -0.018717264756560326,
          -0.07217959314584732,
          -0.052627045661211014,
          -0.03874293342232704,
          -0.11057581007480621,
          -0.05826609581708908,
          0.16873376071453094,
          0.06866816431283951,
          -0.1006111428141594,
          0.19507183134555817,
          -0.05906733497977257,
          0.18421316146850586,
          -0.14734657108783722,
          -0.13407638669013977,
          0.06203395873308182,
          0.07223930209875107,
          0.21705693006515503,
          0.15002700686454773,
          0.008488111197948456,
          -0.14287714660167694,
          0.17587746679782867,
          -0.07568155229091644,
          0.20275501906871796,
          -0.1120956763625145,
          0.1338680386543274,
          -0.16521207988262177,
          -0.1727529615163803,
